digraph Tree {
node [shape=box, style="filled, rounded", color="black", fontname=helvetica] ;
edge [fontname=helvetica] ;
0 [label="petal length (cm) <= 2.6\ngini = 0.66\nsamples = 98\nvalue = [51, 59, 40]\nclass = versicolor", fillcolor="#39e58115"] ;
1 [label="gini = 0.0\nsamples = 32\nvalue = [51, 0, 0]\nclass = setosa", fillcolor="#e58139ff"] ;
0 -> 1 [labeldistance=2.5, labelangle=45, headlabel="True"] ;
2 [label="petal length (cm) <= 4.95\ngini = 0.48\nsamples = 66\nvalue = [0, 59, 40]\nclass = versicolor", fillcolor="#39e58152"] ;
0 -> 2 [labeldistance=2.5, labelangle=-45, headlabel="False"] ;
3 [label="petal width (cm) <= 1.9\ngini = 0.06\nsamples = 36\nvalue = [0, 58, 2]\nclass = versicolor", fillcolor="#39e581f6"] ;
2 -> 3 ;
4 [label="petal width (cm) <= 1.65\ngini = 0.03\nsamples = 35\nvalue = [0, 58, 1]\nclass = versicolor", fillcolor="#39e581fb"] ;
3 -> 4 ;
5 [label="gini = 0.0\nsamples = 33\nvalue = [0, 56, 0]\nclass = versicolor", fillcolor="#39e581ff"] ;
4 -> 5 ;
6 [label="petal width (cm) <= 1.75\ngini = 0.44\nsamples = 2\nvalue = [0, 2, 1]\nclass = versicolor", fillcolor="#39e5817f"] ;
4 -> 6 ;
7 [label="gini = 0.0\nsamples = 1\nvalue = [0, 0, 1]\nclass = virginica", fillcolor="#8139e5ff"] ;
6 -> 7 ;
8 [label="gini = 0.0\nsamples = 1\nvalue = [0, 2, 0]\nclass = versicolor", fillcolor="#39e581ff"] ;
6 -> 8 ;
9 [label="gini = 0.0\nsamples = 1\nvalue = [0, 0, 1]\nclass = virginica", fillcolor="#8139e5ff"] ;
3 -> 9 ;
10 [label="petal width (cm) <= 1.7\ngini = 0.05\nsamples = 30\nvalue = [0, 1, 38]\nclass = virginica", fillcolor="#8139e5f8"] ;
2 -> 10 ;
11 [label="petal length (cm) <= 5.35\ngini = 0.38\nsamples = 4\nvalue = [0, 1, 3]\nclass = virginica", fillcolor="#8139e5aa"] ;
10 -> 11 ;
12 [label="sepal width (cm) <= 2.45\ngini = 0.5\nsamples = 2\nvalue = [0, 1, 1]\nclass = versicolor", fillcolor="#39e58100"] ;
11 -> 12 ;
13 [label="gini = 0.0\nsamples = 1\nvalue = [0, 0, 1]\nclass = virginica", fillcolor="#8139e5ff"] ;
12 -> 13 ;
14 [label="gini = 0.0\nsamples = 1\nvalue = [0, 1, 0]\nclass = versicolor", fillcolor="#39e581ff"] ;
12 -> 14 ;
15 [label="gini = 0.0\nsamples = 2\nvalue = [0, 0, 2]\nclass = virginica", fillcolor="#8139e5ff"] ;
11 -> 15 ;
16 [label="gini = 0.0\nsamples = 26\nvalue = [0, 0, 35]\nclass = virginica", fillcolor="#8139e5ff"] ;
10 -> 16 ;
}